<?xml version="1.0"?>
<!-- DTD for the XMLBIF 0.3 format -->
<!DOCTYPE BIF [
	<!ELEMENT BIF ( NETWORK )*>
	      <!ATTLIST BIF VERSION CDATA #REQUIRED>
	<!ELEMENT NETWORK ( NAME, ( PROPERTY | VARIABLE | DEFINITION )* )>
	<!ELEMENT NAME (#PCDATA)>
	<!ELEMENT VARIABLE ( NAME, ( OUTCOME |  PROPERTY )* ) >
	      <!ATTLIST VARIABLE TYPE (nature|decision|utility) "nature">
	<!ELEMENT OUTCOME (#PCDATA)>
	<!ELEMENT DEFINITION ( FOR | GIVEN | TABLE | PROPERTY )* >
	<!ELEMENT FOR (#PCDATA)>
	<!ELEMENT GIVEN (#PCDATA)>
	<!ELEMENT TABLE (#PCDATA)>
	<!ELEMENT PROPERTY (#PCDATA)>
]>


<BIF VERSION="0.3">
<NETWORK>
<NAME>TrainingData_g3-6-weka.filters.unsupervised.attribute.Remove-V-R6,21,25</NAME>
<VARIABLE TYPE="nature">
<NAME>switch_door_hallway</NAME>
<OUTCOME>on</OUTCOME>
<OUTCOME>off</OUTCOME>
<PROPERTY>position = (0,0)</PROPERTY>
</VARIABLE>
<VARIABLE TYPE="nature">
<NAME>people_livingroom</NAME>
<OUTCOME>off</OUTCOME>
<OUTCOME>on</OUTCOME>
<PROPERTY>position = (50,0)</PROPERTY>
</VARIABLE>
<VARIABLE TYPE="nature">
<NAME>class</NAME>
<OUTCOME>OtherActivity</OUTCOME>
<OUTCOME>g3-6</OUTCOME>
<PROPERTY>position = (100,0)</PROPERTY>
</VARIABLE>
<DEFINITION>
<FOR>switch_door_hallway</FOR>
<GIVEN>class</GIVEN>
<TABLE>
0.0029860650298606504 0.9970139349701393 
0.9944444444444445 0.005555555555555556 
</TABLE>
</DEFINITION>
<DEFINITION>
<FOR>people_livingroom</FOR>
<GIVEN>class</GIVEN>
<TABLE>
0.6094890510948905 0.3905109489051095 
0.7722222222222223 0.22777777777777777 
</TABLE>
</DEFINITION>
<DEFINITION>
<FOR>class</FOR>
<TABLE>
0.943922305764411 0.05607769423558897 
</TABLE>
</DEFINITION>
</NETWORK>
</BIF>
